{"0_weights": [[-0.6110902428627014, -0.5881786942481995, -0.2671761214733124, -0.3606206476688385, 0.38229721784591675, -0.4784407913684845, -0.5944173336029053, 0.11010188609361649, -0.2617832124233246, -0.376761257648468, 0.42941218614578247, -0.44793522357940674, -0.2663181722164154, 0.326383501291275, 0.1876165121793747, -0.47490406036376953], [-0.2335507571697235, 0.4660375416278839, 0.14962948858737946, -0.20128880441188812, -0.4362821578979492, -0.31080639362335205, 0.26288139820098877, -0.21321487426757812, 0.3331862688064575, 0.7065929770469666, 0.23887167870998383, -0.0191796887665987, -0.08997810631990433, 0.7884330749511719, 0.31340470910072327, 0.03869887441396713], [-0.11555597186088562, 0.13908430933952332, -0.11122781783342361, -1.0062743425369263, -0.15706688165664673, 0.09194206446409225, -0.0074996366165578365, -0.42519906163215637, -0.0739203691482544, -0.19638526439666748, -0.180588036775589, 0.6947119235992432, -0.2030486762523651, -0.35231173038482666, 0.16558031737804413, -0.09611469507217407], [0.13604417443275452, 0.48346272110939026, 0.0928153544664383, 0.5495953559875488, -0.46275100111961365, 0.8698082566261292, -0.4118136763572693, 0.4604186713695526, -0.20882870256900787, 0.24078819155693054, -0.2465369999408722, 0.44332268834114075, 0.2974467873573303, -0.09098916500806808, 0.06114403158426285, -0.2839203476905823], [0.45036518573760986, 0.003392792074009776, 0.3590054512023926, 0.19719955325126648, -0.4499724507331848, 0.13891343772411346, 0.026295961812138557, 0.1782490313053131, 0.6855181455612183, 0.6774979829788208, 0.6414403915405273, 0.32100412249565125, 0.9713141322135925, -0.6346940398216248, 0.32750460505485535, 0.3362085819244385], [0.69437175989151, -0.3901462256908417, 0.043663736432790756, 0.14764730632305145, 0.5778735876083374, 0.4678829312324524, 0.5946663022041321, -0.2373981922864914, 0.43012893199920654, 0.07753990590572357, 0.6583564877510071, 0.46918120980262756, 0.12833978235721588, 0.9170323610305786, 0.6419697999954224, -0.11823786795139313], [-0.3551594614982605, 0.577750563621521, -0.07939403504133224, -0.348225861787796, 0.0831693708896637, 0.22931958734989166, -0.21744771301746368, -0.1300385445356369, -0.7819912433624268, -0.63016676902771, 0.31470903754234314, -0.5394840836524963, 0.12568119168281555, 0.24413181841373444, -0.017873544245958328, 0.40174755454063416], [0.25324833393096924, -0.4891597032546997, 0.6197481155395508, 0.09147870540618896, 0.2822929620742798, 0.19434776902198792, 0.8992713093757629, 0.5507785081863403, -0.0423293262720108, 0.13434083759784698, 0.3540017902851105, 0.3679327666759491, -0.6427218914031982, -0.1312822848558426, -0.17825481295585632, -0.2395421713590622], [0.6072412729263306, -0.5610514283180237, -0.0766064003109932, 0.15696096420288086, -0.18219579756259918, 0.0057904645800590515, 0.06971204280853271, -0.0028937342576682568, 0.6639598608016968, -0.48974353075027466, 0.07826562970876694, -0.3809853196144104, -0.2221982479095459, 0.044836170971393585, 0.12204468250274658, -0.652067244052887], [-0.324222594499588, -0.8640011548995972, 0.04064874351024628, 0.40169066190719604, -0.5445343852043152, -0.0788879543542862, 0.05538303777575493, -0.025344813242554665, 0.557881772518158, 0.3466939330101013, 0.04030091315507889, 0.028925420716404915, -0.5831865668296814, 0.038798194378614426, -0.05802292749285698, 0.18440480530261993], [-0.13066521286964417, -0.020451035350561142, -0.18126943707466125, -0.8027150630950928, 0.01160417776554823, 0.9448928236961365, 0.2437017560005188, -1.0087801218032837, -0.09719028323888779, -0.10633749514818192, -0.5672795176506042, -0.07051817327737808, -0.2568747103214264, -0.318672239780426, 0.6927974224090576, -0.2066020667552948]], "1_weights": [[0.30382153391838074, 0.28022634983062744, 0.03920647129416466, -0.17452135682106018, 0.006044934503734112, -0.10266590863466263, 0.5443429946899414, -0.5091872811317444, -0.06538508832454681, 0.5871070027351379, 0.7898301482200623, 0.7017441987991333, 0.2753129303455353, -0.042531583458185196, -0.09553857147693634, 0.10391342639923096], [0.41006186604499817, 0.9660099148750305, 0.19410283863544464, -0.47002094984054565, -0.2904459536075592, -0.25948724150657654, -0.14772309362888336, -0.5336210131645203, -0.23173180222511292, 0.4907124936580658, 0.9624948501586914, 0.7694089412689209, 0.20204244554042816, 0.09743892401456833, -0.3979931175708771, 0.3705357611179352], [0.17107416689395905, -0.2786780297756195, -0.41979774832725525, -0.16765694320201874, 0.3207484483718872, 0.05303352698683739, -0.18866458535194397, 0.06454801559448242, -0.17168879508972168, 0.6806318163871765, 0.3749746084213257, 0.5603539347648621, -0.5747815370559692, -0.6793320775032043, -0.30869728326797485, 0.4262528121471405], [-0.952383816242218, 0.5383187532424927, -0.4459914267063141, -0.04853745922446251, 0.7165980935096741, 0.5205795168876648, 0.38329198956489563, -0.14402098953723907, -0.008706225082278252, 0.5898197889328003, -2.4308810234069824, -2.4969642162323, -0.7261304259300232, -0.09337641298770905, -0.1733570396900177, 0.750247597694397], [-0.024743279442191124, -0.3198614716529846, -0.22607658803462982, -0.30725255608558655, 0.13655103743076324, -0.2419707328081131, 0.46098795533180237, 0.12424016743898392, -0.13592199981212616, 0.1250438243150711, -0.07197976857423782, -0.11747284233570099, -0.034961145371198654, -0.41083356738090515, -0.030377192422747612, -0.3315398693084717], [0.17440420389175415, 0.24006493389606476, -0.019828282296657562, 0.017107579857110977, -0.4639083445072174, 0.7065331935882568, -0.18332639336585999, 0.3149929642677307, 0.21134419739246368, -0.30932965874671936, 0.1846141517162323, 0.3172832727432251, 0.3523406982421875, -0.7364027500152588, -0.024674324318766594, -0.2407637983560562], [-0.06386606395244598, 0.5166517496109009, -0.4707406163215637, 0.19768750667572021, -0.39101728796958923, -0.031820375472307205, -0.35540568828582764, -0.26442113518714905, -0.1985923945903778, 0.10480940341949463, 0.08269870281219482, -0.3115350902080536, 0.21196797490119934, 0.1754443347454071, 0.13075025379657745, 0.11355600506067276], [0.248785138130188, 0.5571104884147644, -0.1658848524093628, -0.027949389070272446, 0.5122455954551697, -1.2099406719207764, 0.9000429511070251, -0.5764192342758179, 0.14698557555675507, 0.6816961169242859, 0.49923285841941833, 0.4246099293231964, -0.058167845010757446, 0.7709876298904419, -0.8160466551780701, 0.4501558840274811], [0.5697997808456421, 0.5208300948143005, 0.06936714053153992, -0.21603649854660034, 0.16679245233535767, -0.5306270718574524, -0.09371554106473923, -0.3414042890071869, -0.10827960073947906, 0.6813035607337952, 0.36075302958488464, 0.4931047856807709, -0.35868796706199646, 0.716123104095459, -0.7246299386024475, 0.5791844725608826], [0.9235398769378662, 0.33576124906539917, -0.39543694257736206, -0.08172335475683212, -0.3029056191444397, -0.11549532413482666, 0.46095430850982666, -0.4779133200645447, -0.23404258489608765, 0.8136372566223145, 0.5186145305633545, 0.8232489228248596, -0.8393688201904297, -0.16683977842330933, -0.13660818338394165, 0.20374420285224915], [-1.0532028675079346, -0.8579866290092468, 0.17721711099147797, 0.2462206482887268, 0.6095679998397827, 0.036186590790748596, 0.21465377509593964, 0.01855795457959175, -0.12676645815372467, -0.35205215215682983, 0.08479765057563782, -0.11324111372232437, 0.2859099209308624, 0.22790369391441345, 0.19860807061195374, 0.19786009192466736], [0.5486294627189636, 0.20190230011940002, -0.1256168782711029, -0.7825840711593628, -0.029046792536973953, -0.3825370669364929, -0.09083135426044464, -0.15142041444778442, 0.01598001830279827, 0.48683586716651917, -0.006884924601763487, 0.4508326053619385, -0.24782244861125946, 0.0855003371834755, -0.06996644288301468, 0.8217707276344299], [-0.8711329102516174, -0.3815934956073761, 0.1738242655992508, 0.3924848139286041, 0.11964297294616699, 0.12593750655651093, -0.6991283893585205, 0.3247317373752594, 0.27381062507629395, -0.7957283854484558, -0.046638790518045425, -0.8647603392601013, 0.34134575724601746, 0.2038019448518753, 0.3328986167907715, -0.036584969609975815], [-0.7924580574035645, -0.3805629312992096, 0.2884277403354645, 0.7128817439079285, -0.18461667001247406, -0.013247189112007618, -0.10964202135801315, 0.8444366455078125, 0.7003503441810608, 0.06332448869943619, -0.8544765114784241, -0.3649696409702301, 0.24805039167404175, -0.07149575650691986, 0.8058178424835205, -0.16560989618301392], [-0.5833773612976074, -0.2566685080528259, 0.12939725816249847, 0.1628972589969635, -0.3797018527984619, 0.20150084793567657, -0.26494869589805603, 0.028171725571155548, 0.38310712575912476, 0.2989748418331146, 0.2668887972831726, -0.16050615906715393, 0.21352656185626984, 0.11737539619207382, 0.33259791135787964, 0.09729039669036865], [-0.42681562900543213, -1.6571201086044312, 0.1631903201341629, 0.560249388217926, -0.09321249276399612, 0.1530662477016449, -0.1737491637468338, 0.30233535170555115, 0.1197294294834137, -0.2898011803627014, -0.8882489204406738, -0.3220726251602173, -0.14126351475715637, -1.1822296380996704, 0.27264317870140076, -0.1181071549654007]], "2_weights": [[1.8518359661102295, 1.8303579092025757, 1.9199844598770142], [1.4293121099472046, 1.4383513927459717, 1.3937207460403442], [-0.2207985669374466, -0.5292670726776123, -0.13235436379909515], [-0.2972095310688019, -0.24037723243236542, -0.6048332452774048], [0.624369204044342, 0.3752186596393585, 0.20515434443950653], [-0.6266016364097595, -0.6829268336296082, -0.6858895421028137], [0.8071226477622986, 0.7354643940925598, 0.6974395513534546], [-0.3115054965019226, -0.16566121578216553, -0.3625704050064087], [-0.46228915452957153, -0.4290345013141632, 0.2358628362417221], [0.9023584723472595, 0.8656627535820007, 0.6997991800308228], [0.8932164907455444, 0.8395434617996216, 1.0939712524414062], [0.923149049282074, 0.9346211552619934, 1.5255335569381714], [-0.5567841529846191, -0.4432543218135834, -0.8380670547485352], [-0.6045417785644531, -0.5617966651916504, -0.4617302417755127], [-0.3714284598827362, -0.4612167179584503, -0.5457471609115601], [0.2978324294090271, 0.35854700207710266, -0.01745750568807125]], "0_bias": [0.011420455761253834, -0.015648314729332924, -0.17380817234516144, -0.138189435005188, 0.15437859296798706, 0.00722534628584981, 0.014907523058354855, -0.1025206670165062, -0.09076384454965591, -0.16458256542682648, 0.051404573023319244, -0.1560506671667099, 0.12032384425401688, 0.11820570379495621, -0.15470711886882782, 0.06443527340888977], "1_bias": [-0.07629328966140747, -0.2508120536804199, -0.04638970270752907, -0.06907147169113159, 0.15011031925678253, -0.07008399069309235, 0.11462308466434479, -0.18973268568515778, 0.09672869741916656, 0.16639943420886993, -0.393830269575119, -0.1005467101931572, -0.0762539654970169, -0.09445234388113022, -0.05168483033776283, 0.13216635584831238], "2_bias": [0.1237817332148552, 0.061940982937812805, 0.0031096392776817083],"obj_num": 9}