{"0_weights": [[0.08278010040521622, -0.1213713139295578, -0.1272108256816864, -1.1421287059783936, 0.3906460404396057, -0.3176499307155609, -0.4335571229457855, 0.46954792737960815, 0.19954581558704376, 0.09220363944768906, 0.5816411972045898, -0.35304009914398193, -0.03872021287679672, -0.3086894154548645, 0.45784223079681396, -0.21095436811447144], [-0.6111081838607788, 0.47565311193466187, 0.5325238108634949, -0.17260286211967468, -0.3410624563694, 0.44539278745651245, 0.7492467761039734, -0.421919584274292, 0.7429150342941284, 0.5207569003105164, 0.061078887432813644, -0.17197749018669128, -0.4117773473262787, 0.5309612154960632, 0.4064794182777405, -0.3813163936138153], [-0.5130860209465027, -0.37051263451576233, -0.3922024071216583, -0.09783045202493668, -0.3205227255821228, -0.03154786676168442, 0.11444349586963654, -0.28240880370140076, -0.5699352622032166, 0.17943984270095825, -0.1741061955690384, 0.8339422941207886, -0.4700106382369995, -0.23940515518188477, 1.0068230628967285, -0.12845396995544434], [-0.10960220545530319, 0.4415484666824341, -0.03980375453829765, 0.564284086227417, -0.4592287242412567, 0.7798250913619995, -0.3623315691947937, 0.19351613521575928, -0.05346100404858589, -0.005629396997392178, -0.6591783761978149, -0.07267971336841583, 0.1252671778202057, -0.10606960207223892, -0.04857085272669792, -0.8685020804405212], [0.49206146597862244, 0.38847610354423523, 0.36342447996139526, 0.16073545813560486, -0.276911199092865, -0.18572251498699188, 0.008372317999601364, -0.20392848551273346, 0.5049542188644409, 0.7790734767913818, 0.4366210401058197, -0.06087353825569153, 0.8360802531242371, -0.6741771697998047, 0.24193742871284485, -0.05100018158555031], [0.6649499535560608, -0.2923911511898041, 0.007037623319774866, -0.48671090602874756, 0.6621731519699097, 0.5467343926429749, 0.1028779074549675, -0.2302689403295517, -0.1639261394739151, 0.03714842349290848, 0.7016552090644836, 0.5205835103988647, 0.2975427508354187, 0.8286969065666199, 0.41960516571998596, -0.19597038626670837], [-0.6766372323036194, 0.3032999336719513, -0.07623271644115448, -0.1866319477558136, -0.08526386320590973, 0.40959301590919495, 0.010062610730528831, -0.32627034187316895, -0.5513986945152283, -0.5954217910766602, 0.23797449469566345, -0.5355002880096436, 0.4440325200557709, 0.21713268756866455, -0.2243322879076004, 0.5932601094245911], [0.2854895293712616, -0.6603886485099792, 0.1662386655807495, -0.05093495547771454, 0.3485119938850403, 0.026973707601428032, 0.6482670903205872, 0.6212976574897766, -0.12457531690597534, 0.16127553582191467, 0.4909755289554596, 0.1309102177619934, -0.5133357048034668, 0.0024503511376678944, -0.4727122187614441, -0.05847463011741638], [0.04929981008172035, -0.3646674156188965, 0.1431509405374527, 0.20161454379558563, -0.07007850706577301, 0.11499849706888199, 0.16128234565258026, -0.013279616832733154, 0.5030883550643921, -0.17367510497570038, -0.2077431082725525, -0.6057912707328796, 0.13373681902885437, -0.36814844608306885, -0.07882469147443771, -0.1366550773382187], [0.2477612942457199, -0.41449877619743347, -0.07953708618879318, 0.3316197991371155, -0.5253267288208008, -0.13631196320056915, 0.09638683497905731, 0.03815287724137306, 0.5930889844894409, 0.40712684392929077, 0.06710745394229889, 0.07822830975055695, -0.4721941649913788, 0.29726508259773254, -0.3411232531070709, 0.5305947065353394], [-0.08093623071908951, 0.006831648293882608, 0.28240537643432617, -0.4968251883983612, -0.31848153471946716, 0.1902826428413391, -0.14320746064186096, -0.5093013048171997, -0.2597048878669739, 0.16014085710048676, -0.51662278175354, -0.005068045109510422, 0.2844630181789398, -0.05693488568067551, -0.12158266454935074, 0.001294101937673986]], "1_weights": [[0.15628892183303833, 0.6829624772071838, 0.44386059045791626, 0.37166067957878113, 0.7675819993019104, -0.045152995735406876, 0.43213406205177307, -1.2196555137634277, -0.5355587005615234, 0.47824496030807495, 1.0981932878494263, 0.7355347871780396, 0.09183055907487869, 0.3072815537452698, -0.1023862212896347, 0.03754863888025284], [-0.1525195688009262, 0.2085343897342682, -0.6709340214729309, -0.2276996225118637, -0.39171460270881653, 0.22176644206047058, -0.22963452339172363, -0.3184603154659271, -0.06675808876752853, -0.42136654257774353, 0.11116030067205429, -0.27302393317222595, 0.404254674911499, -0.2899514436721802, -0.1965792179107666, -0.1392592489719391], [0.2773975729942322, 0.08031611889600754, 0.24523887038230896, -0.34225398302078247, 0.09715507924556732, 0.1489805281162262, -0.30953964591026306, 0.2633359432220459, 0.1421658992767334, 0.2404310554265976, 0.3953557312488556, 0.6274509429931641, -0.5953947901725769, -0.4452521502971649, -0.14923834800720215, -0.061938948929309845], [-0.5681792497634888, -0.30796629190444946, -1.1152693033218384, 0.45528697967529297, -0.1571846306324005, 0.5922364592552185, -0.21052749454975128, -0.403454452753067, -0.2713567316532135, -0.48909011483192444, -0.5030736923217773, -0.6191262602806091, 0.025411875918507576, 0.9918351769447327, 0.09169463813304901, 0.418410062789917], [0.3371489346027374, 0.05327560007572174, 0.17446114122867584, 0.04617731273174286, 0.413761705160141, -0.4223102033138275, 0.42385101318359375, 0.6492561101913452, 0.13182567059993744, 0.45568880438804626, -0.2821919322013855, 0.4049200713634491, -0.26658403873443604, -0.6522421836853027, -0.24629515409469604, -0.9220770001411438], [0.4328834116458893, 0.5268325805664062, -0.12224188446998596, -0.03433144837617874, -0.050503022968769073, 0.4420804977416992, -0.012648246251046658, 0.6800521016120911, 0.22758983075618744, -0.5435674786567688, -0.006768675986677408, 0.5582984685897827, 0.31994667649269104, -0.015714047476649284, -0.026934828609228134, -0.2768156826496124], [-0.013562805019319057, 0.5945990085601807, -0.17649413645267487, -0.036687687039375305, -0.27298253774642944, -0.09124592691659927, -0.21710173785686493, 0.251279354095459, -0.21538108587265015, -0.7030728459358215, -0.1785336285829544, -0.1557544618844986, 0.12307886779308319, -0.18211600184440613, 0.26950618624687195, 0.04617082327604294], [0.03575420379638672, 0.3902193605899811, 0.2892818748950958, 0.03581201657652855, 0.40429630875587463, -0.40521636605262756, 0.36343395709991455, 0.40612608194351196, -0.0589713528752327, 0.6812249422073364, -0.2545097768306732, 0.12301743775606155, 0.015538478270173073, 0.3753584027290344, -0.2079090178012848, -0.18821501731872559], [0.4508668780326843, 0.14547231793403625, 0.2426583170890808, -0.239136204123497, 0.10496609658002853, -0.1392078846693039, -0.6827637553215027, 0.32699668407440186, 0.5746070742607117, 0.15718986093997955, 0.3029318153858185, 0.41835764050483704, -0.28016287088394165, -0.05483817309141159, -0.44602712988853455, 0.339914470911026], [0.0025583545211702585, 0.1987665891647339, -0.3045922517776489, 0.20890933275222778, -0.18386656045913696, 0.008556252345442772, 0.3957550525665283, -0.3918622136116028, -0.28004756569862366, 0.5062693357467651, 0.5289191007614136, 0.32305100560188293, -0.6615239977836609, 0.17064468562602997, -0.0845998227596283, 0.21129219233989716], [-0.6278603672981262, -0.3207164704799652, 0.07081203907728195, 0.14354461431503296, 0.6715235114097595, -0.1278548389673233, 0.3162851333618164, -0.2833659052848816, -0.7148931622505188, -0.49907490611076355, 0.43086904287338257, 0.07637692987918854, 0.10460694879293442, 0.13296860456466675, 0.1575424075126648, 0.10150298476219177], [0.9584856629371643, 0.5027589797973633, 0.08719697594642639, -0.4114169180393219, 0.1756620556116104, -0.07623612135648727, 0.12300741672515869, 0.37556782364845276, 0.4704429805278778, 0.8233690857887268, 0.10312015563249588, 0.2729022800922394, -0.38525715470314026, 0.19842523336410522, -0.051535364240407944, 0.8902945518493652], [0.5298773646354675, 0.36129727959632874, -1.0299651622772217, -0.04019096866250038, 0.23896880447864532, -0.8618956208229065, -0.5088806748390198, 0.15717728435993195, 0.0028605726547539234, -0.3191828429698944, 0.5396659970283508, 0.5667877793312073, -0.17895008623600006, 0.25482890009880066, -0.21003912389278412, -0.18519212305545807], [-0.14674237370491028, 0.09773092716932297, 0.15192623436450958, 0.594939112663269, -0.12964047491550446, 0.2975229322910309, -0.24742265045642853, 0.7581601738929749, 0.607921302318573, -0.2555563747882843, -0.7514855861663818, -0.33429569005966187, 0.07668767869472504, -0.3156711161136627, 0.827804446220398, 0.24074935913085938], [-0.5199083089828491, -0.45919501781463623, -0.2898043394088745, 0.34839555621147156, -0.2505476772785187, 0.6326916813850403, 0.040651798248291016, -0.5100171566009521, -0.03617946431040764, 0.20323200523853302, 0.26128992438316345, -0.20715010166168213, 0.28660765290260315, -0.4618595540523529, 0.4357447326183319, 0.2838849127292633], [-0.730471134185791, -0.24893413484096527, 0.24120450019836426, 0.589148223400116, -0.5806924700737, 0.35856717824935913, 0.0656774565577507, -0.2101603001356125, 0.19254562258720398, -0.0026189310010522604, -0.07882973551750183, -0.3845076262950897, 0.21006125211715698, -0.36729419231414795, 0.33355391025543213, -0.06466974318027496]], "2_weights": [[0.04847051948308945, 1.6160688400268555, -0.14254291355609894], [0.3275422751903534, 0.6282644867897034, 0.23087549209594727], [-0.5279248356819153, -0.4133484661579132, -0.04124994948506355], [-0.12522391974925995, -0.10500466078519821, -0.45326364040374756], [0.6601833701133728, 0.2703011631965637, 0.13689495623111725], [-0.07519280910491943, -0.571223795413971, -0.6946950554847717], [0.46329084038734436, 0.6276693940162659, 0.45370766520500183], [-0.7128589153289795, 0.31005293130874634, -0.2152760773897171], [1.2154643535614014, 1.0291279554367065, 1.1428958177566528], [0.4140232503414154, 0.6348661780357361, 1.4009201526641846], [0.6520051956176758, 0.2648014426231384, 0.17222627997398376], [0.5150400400161743, 0.6611990928649902, 0.22967956960201263], [-0.6988601684570312, -0.24048295617103577, -0.3919462561607361], [-0.8145825862884521, -0.5981999635696411, -0.08486339449882507], [-0.3943570554256439, -0.526118278503418, -0.3118915557861328], [0.2500564455986023, 0.5713287591934204, 0.29661068320274353]], "0_bias": [0.06069355085492134, 0.08654627948999405, 0.04362351819872856, -0.0008972950163297355, -0.07410608232021332, 0.015827573835849762, -0.14322061836719513, 0.07738865911960602, 0.09739551693201065, 0.0005916639347560704, -0.08330143988132477, 0.008645473048090935, 0.1186506524682045, -0.004464964848011732, 0.0018666392425075173, 0.23734520375728607], "1_bias": [0.015271967276930809, -0.06948912888765335, 0.30889052152633667, 0.031007779762148857, 0.0298969354480505, 0.051909975707530975, 0.014386746101081371, -0.26152610778808594, 0.10311686992645264, 0.16134457290172577, -0.09150239080190659, 0.04550338163971901, 0.1671278476715088, 0.148124560713768, 0.14782144129276276, -0.11033856868743896], "2_bias": [-0.10185980796813965, -0.025113241747021675, 0.10194209218025208],"obj_num": 2}