{"0_weights": [[-0.5315026044845581, -0.3208211064338684, -0.24932849407196045, 0.38374754786491394, 0.5393500924110413, -0.5693501830101013, -0.5225261449813843, 0.3204368054866791, -0.07186107337474823, -0.16972984373569489, 0.7969957590103149, -0.11730396747589111, 0.13655447959899902, 0.4423704743385315, 0.6006222367286682, -0.30855780839920044], [-0.40438514947891235, -0.010022534988820553, 0.8556708693504333, -0.5090435147285461, -0.3485873341560364, -0.19284749031066895, 0.605684757232666, -0.06558733433485031, 0.1961703896522522, 0.5461876392364502, -0.29484128952026367, 0.02132466621696949, -0.14673659205436707, 0.6345692276954651, 0.16098642349243164, -0.4853360652923584], [-0.4278954863548279, -0.3231513500213623, -0.3150516152381897, -0.876492977142334, 0.44649651646614075, 0.5139855146408081, 0.1996462643146515, -0.4710749685764313, -0.33478686213493347, 0.327507346868515, -0.9041233062744141, 0.4675479233264923, 0.024974102154374123, -0.4314199388027191, 0.44160544872283936, 0.0034854465629905462], [0.02600785717368126, 0.523186445236206, -0.0705811157822609, 0.6057263016700745, -0.13838030397891998, 0.6779247522354126, -0.3503926396369934, 0.2426878660917282, -0.32446157932281494, -0.05652274563908577, -0.746405839920044, 0.20650961995124817, -0.004536370746791363, -0.16345837712287903, -0.1923670768737793, -0.5784634947776794], [0.5600466728210449, -0.03917330503463745, 0.22417235374450684, 0.2391359508037567, -0.10818296670913696, -0.0024273900780826807, -0.020785370841622353, 0.04652748256921768, 0.3648298978805542, 0.9179292917251587, 0.872062087059021, 0.08042620867490768, 0.7228128910064697, -0.4442705512046814, 0.16666221618652344, -0.021139072254300117], [0.816436231136322, -0.6180250644683838, -0.1121908575296402, -0.6455144882202148, 0.277876079082489, 1.0311073064804077, 0.3404339849948883, -0.7779908776283264, 0.09234022349119186, -0.1311274617910385, 0.32024070620536804, 0.34022778272628784, 0.24238955974578857, 0.7601214647293091, 0.48127877712249756, -0.4105307161808014], [-0.17062264680862427, 0.2707854211330414, 0.1734989732503891, -0.19179391860961914, -0.12134614586830139, 0.4914655387401581, -0.2615790069103241, 0.037274301052093506, -0.8891198635101318, -0.37668412923812866, 0.3780848979949951, -0.4784500300884247, 0.04004496708512306, 0.26848405599594116, 0.054311603307724, 0.621020495891571], [0.43424442410469055, -0.6295767426490784, 0.5489321351051331, 0.2587890028953552, 0.44672781229019165, -0.09806191921234131, 0.6326302886009216, 0.32364195585250854, 0.3875521123409271, 0.031524598598480225, 0.5046054720878601, 0.16582739353179932, -0.7593613862991333, -0.10132209956645966, -0.11640798300504684, 0.21215683221817017], [0.5187405347824097, -0.6844931244850159, -0.39182230830192566, 0.15888053178787231, -0.1813630610704422, 0.38683146238327026, 0.48184022307395935, -0.019726358354091644, 0.21935060620307922, -0.5654905438423157, 0.015465933829545975, -0.310440331697464, -0.24044787883758545, -0.17435823380947113, 0.13813380897045135, -0.4196981191635132], [0.19774572551250458, -0.3280496895313263, 0.3147340416908264, -0.003578856121748686, -0.9117952585220337, -0.41769206523895264, -0.03545999899506569, 0.1954111009836197, 0.05828092619776726, 0.3109056055545807, 0.14727111160755157, 0.15986330807209015, -0.8339802026748657, 0.30900269746780396, -0.09813936799764633, 0.5203927755355835], [0.01305664423853159, 0.3637239933013916, 0.5702221393585205, 0.7427114248275757, 0.18501810729503632, 0.73946213722229, -0.2959863543510437, -1.0329283475875854, -1.307762861251831, 0.5789405703544617, 0.27780333161354065, 0.22011499106884003, 0.01732059195637703, -0.3108426034450531, 0.26402196288108826, 0.05023544654250145]], "1_weights": [[0.2373640090227127, 0.9743087887763977, 0.29920095205307007, -0.29504331946372986, 0.11495400220155716, 0.14232733845710754, 0.6716734170913696, -0.28328487277030945, -0.7069050073623657, 0.6961073875427246, 0.5995436906814575, 0.3917066752910614, -0.014408527873456478, -0.27644339203834534, -0.06762728095054626, -0.08036679029464722], [-0.8556215167045593, -0.06454005837440491, 0.30314308404922485, 0.05469115823507309, -0.5993345379829407, 0.11517571657896042, -1.108167290687561, -0.05230304226279259, 0.3331238627433777, -0.13540776073932648, -0.06095151975750923, -0.5471166372299194, 0.24675174057483673, -0.2953573763370514, -0.023482240736484528, 0.8872410655021667], [0.25072482228279114, -0.6136205196380615, -0.17594867944717407, 0.17056384682655334, -0.023078033700585365, 0.3918564021587372, -0.25200018286705017, 0.4331020712852478, 0.2733616828918457, 0.1689273715019226, 0.35073214769363403, 0.4143036901950836, -0.575954794883728, -0.3414336144924164, -0.008987742476165295, -0.1482476443052292], [0.06545577943325043, 0.1221577599644661, -0.10181206464767456, 1.3223809003829956, -0.351232647895813, 0.6393078565597534, -0.10627295076847076, 0.3318847119808197, 1.2282322645187378, 0.11845468729734421, 0.36732131242752075, -0.31378868222236633, -0.4268348813056946, 0.28001052141189575, -0.5725750923156738, -1.792630672454834], [0.42879459261894226, 0.25632888078689575, -0.32697954773902893, -0.6426416635513306, 0.5955149531364441, -0.6358321905136108, 0.7429969906806946, -0.45230165123939514, -0.4079984128475189, 0.3584898114204407, 0.22760874032974243, 0.059918567538261414, -0.24338966608047485, -0.2518007159233093, -0.5106450915336609, -0.27679118514060974], [0.05310140922665596, 0.4635119140148163, 0.2174302190542221, 0.21129600703716278, -0.3165368139743805, 0.6447659730911255, -0.08110804110765457, 0.7038306593894958, 0.23337699472904205, -0.3292734622955322, 0.07180436700582504, 0.616686224937439, 0.02988108992576599, -0.1049640029668808, 0.15308138728141785, -0.3902663290500641], [-0.44393450021743774, 0.3416796922683716, -0.24323202669620514, 0.3083370625972748, -0.5690762996673584, 0.10275918990373611, -0.5315178632736206, 0.0550362803041935, 0.33269113302230835, -0.3018345832824707, -0.6160818338394165, -0.5404686331748962, 0.047793883830308914, 0.004332781303673983, 0.24534189701080322, -0.4263087511062622], [0.3066207766532898, 0.909625768661499, -0.13687513768672943, 0.028503650799393654, 0.64131098985672, -0.32839831709861755, 0.7809458374977112, -0.7539747357368469, 0.029843850061297417, 0.6909019947052002, -0.14642974734306335, -0.2794972062110901, 0.09033307433128357, -0.23406772315502167, -0.3527147173881531, -0.8759948015213013], [-0.11543801426887512, -1.009615421295166, 0.2677292227745056, 0.4296579957008362, 0.27559441328048706, 0.25137460231781006, -0.812638521194458, 0.45605143904685974, 0.47097399830818176, -0.07216662913560867, -1.5822019577026367, -2.362504005432129, -0.11586125195026398, 0.21680286526679993, 0.06526369601488113, 0.600292980670929], [0.4655992388725281, -0.012467334978282452, -0.44978442788124084, 0.01213051751255989, 0.1462700366973877, -0.28151318430900574, 0.5453931093215942, -0.5127829909324646, -0.11516481637954712, 0.3743612766265869, 0.5507522821426392, 0.5304479002952576, -0.5727687478065491, -0.024057662114501, -0.26409396529197693, -0.8435294032096863], [-0.5232895612716675, -0.5953379273414612, 0.1325390785932541, 0.5775217413902283, 0.44699758291244507, 0.40698596835136414, 0.14317794144153595, 0.20802514255046844, -0.5598551034927368, -0.5742180347442627, 0.515382707118988, -0.27398258447647095, 0.06671469658613205, 0.20363809168338776, 0.4122791290283203, 0.8135821223258972], [-0.04499146714806557, 0.30725374817848206, 0.2623386085033417, -0.23890839517116547, 0.3202607333660126, -0.14672529697418213, -0.09857398271560669, -0.01466403715312481, 0.13455739617347717, 0.15326039493083954, -0.11717009544372559, 0.057231295853853226, -0.15430064499378204, -0.26136836409568787, 0.03466092050075531, 0.5741925239562988], [-0.1908542364835739, 0.006352277938276529, 0.11862874776124954, 0.8541461229324341, 0.02849777229130268, 0.044656526297330856, -0.9643858671188354, 0.7341687679290771, 0.6956561207771301, -0.6083558797836304, -0.4230996072292328, -0.5735977292060852, 0.030118117108941078, 0.26281049847602844, 0.7495231628417969, 0.21345171332359314], [0.023406939581036568, -0.1757865846157074, 0.36025312542915344, 0.5591719150543213, -0.34663060307502747, 0.15581366419792175, -0.06486666947603226, 0.6646378040313721, 0.634213387966156, -0.08618234097957611, -0.6084728240966797, -0.2914004325866699, -0.1692638099193573, -0.13769851624965668, 0.6715862154960632, -0.01712755672633648], [-0.1677924394607544, -0.2844211161136627, 0.3250581622123718, 0.10659153014421463, -0.04501480609178543, 0.40819352865219116, -0.010912515223026276, 0.1031496599316597, -0.0330439917743206, 0.4193839132785797, 0.36974015831947327, 0.10115928202867508, -0.1528952270746231, -0.48622798919677734, 0.2751319408416748, 0.25528040528297424], [-0.21108578145503998, -1.3597631454467773, 0.307570219039917, 0.5570425391197205, -0.4116239845752716, 0.5654635429382324, -0.7874736785888672, 0.20575618743896484, 0.3702196776866913, -0.021317927166819572, 0.15843510627746582, -0.4470207095146179, -0.20722906291484833, -0.363818496465683, 0.35223138332366943, 0.13348247110843658]], "2_weights": [[0.07469036430120468, 0.18511377274990082, 0.2845161557197571], [0.9352250695228577, 1.0597774982452393, 1.1121995449066162], [-0.530338704586029, -0.46880966424942017, -0.008501822128891945], [-0.21280039846897125, -0.21284812688827515, -0.8192251920700073], [0.6726604700088501, 0.4190201461315155, 0.5117446780204773], [-0.45429304242134094, -0.7249436378479004, -0.5648615956306458], [1.7773988246917725, 1.8038431406021118, 1.9410014152526855], [-0.5391973257064819, -0.44667482376098633, -0.5181646943092346], [-0.938101053237915, -0.8886535167694092, -0.3573471009731293], [0.3617902398109436, 0.529904305934906, 0.4648149311542511], [0.6613839268684387, 0.4764730632305145, 0.5609898567199707], [0.6998514533042908, 0.9813917279243469, 1.0891538858413696], [-0.29863327741622925, 0.023921841755509377, -0.4392247498035431], [-0.17974522709846497, -0.24431459605693817, 0.16981160640716553], [-0.4156005084514618, -0.5327791571617126, -0.5097420811653137], [1.7962385416030884, -0.6607836484909058, 0.271237313747406]], "0_bias": [0.12946614623069763, -0.011507806368172169, -0.03085692785680294, 0.0879293903708458, 0.07220214605331421, 0.04153568670153618, -0.1544046849012375, 0.029513224959373474, 0.06606555730104446, -0.02710253745317459, -0.04549810290336609, 0.2018386572599411, 0.06793616712093353, 0.017359664663672447, 0.010266169905662537, 0.13628368079662323], "1_bias": [-0.05177243798971176, 0.1562093049287796, -0.027433130890130997, 0.15798024833202362, 0.22024992108345032, 0.08420358598232269, 0.011975347995758057, 0.05701789632439613, 0.02827109955251217, 0.09901998192071915, 0.021559474989771843, -0.05552702769637108, -0.21046483516693115, -0.09725942462682724, 0.07947879284620285, -0.04863588139414787], "2_bias": [0.032509978860616684, 0.00567263038828969, -0.19407325983047485],"obj_num": 7}