{"0_weights": [[-0.16078001260757446, -0.31892159581184387, -0.4836965501308441, -1.3165055513381958, 0.09998968988656998, -0.7511172294616699, -0.635286271572113, 0.10095928609371185, -0.293285995721817, 0.037839438766241074, -0.2436773031949997, -0.08801055699586868, -0.42596155405044556, 0.5265834927558899, 0.6784904599189758, -0.16541637480258942], [-0.29245254397392273, 0.509211003780365, 0.5916997790336609, -0.09648926556110382, -0.3079986870288849, 0.37125152349472046, 0.58234041929245, -0.5397460460662842, 0.4462193250656128, 0.5605241060256958, -0.00048031104961410165, -0.37048447132110596, -0.26910609006881714, 0.6742474436759949, 0.32637155055999756, -0.34502607583999634], [-0.5149895548820496, -0.2559366822242737, -0.0687534436583519, -0.47871464490890503, -0.5031753778457642, 0.6270184516906738, 0.23048736155033112, -0.2179303616285324, -0.28472647070884705, -0.06476182490587234, -0.8335775136947632, 0.8671652674674988, -0.21850807964801788, -0.1545596420764923, 0.6539945006370544, 0.30488747358322144], [-0.6449000835418701, 0.582169771194458, 0.11527962982654572, 0.14021648466587067, -0.1824694126844406, 0.5282278060913086, -0.47369280457496643, 0.4564456343650818, -0.18173947930335999, -0.1551622450351715, -0.4213504493236542, 0.4260839521884918, 0.2520323693752289, 0.24618004262447357, 0.43164557218551636, -0.6207666993141174], [0.4649306833744049, -0.4182186424732208, 0.26124903559684753, 0.0848638042807579, -0.6945208311080933, 0.04047621041536331, 0.26873379945755005, -0.1365487426519394, 0.5611785054206848, 0.723290205001831, 0.22904981672763824, 0.17941515147686005, 0.32661744952201843, -0.5781432390213013, -0.2199431210756302, -0.13349367678165436], [0.6116248965263367, -0.3968666195869446, -0.18004734814167023, -0.28659743070602417, 0.6790316104888916, 0.7225054502487183, 0.4270363748073578, -0.704750120639801, 0.13173028826713562, 0.23546753823757172, 0.305731862783432, 0.5250959396362305, 0.2636874318122864, 0.6858987808227539, 0.1988036036491394, -0.4842453896999359], [-0.31459248065948486, 0.5898723006248474, 0.2689743936061859, 0.590449869632721, 0.21857839822769165, 1.0618939399719238, 0.055639829486608505, -0.2722267508506775, -1.2782530784606934, -0.14584048092365265, 0.463547945022583, -0.7627907395362854, 0.4806874990463257, -0.06641881912946701, -0.3124261498451233, 0.18018116056919098], [0.5187430381774902, -0.7052277326583862, 0.35121390223503113, -0.07180600613355637, -0.11769115924835205, 0.5156993865966797, 0.8929924368858337, 0.5455581545829773, 0.1599775105714798, 0.21226654946804047, 0.2654673457145691, 0.39848992228507996, -1.1130657196044922, -0.274990439414978, -0.23768560588359833, 0.10121915489435196], [0.806736946105957, -0.919172465801239, -0.09314141422510147, -0.07207554578781128, -0.20428672432899475, 0.22292375564575195, 0.8507276177406311, -0.5236011147499084, 0.8607487678527832, -0.3771972358226776, -0.36068442463874817, -0.7052720785140991, -0.1755857765674591, -0.1888270378112793, 0.07568367570638657, -0.3199600875377655], [0.2395278513431549, -0.9980812072753906, -0.2694215178489685, -0.9497852325439453, -1.2299416065216064, -0.1042502224445343, 0.6902934312820435, 1.0568361282348633, 0.3163115382194519, -0.5159596800804138, -1.1945464611053467, 1.0907262563705444, -1.2286511659622192, -0.05203797295689583, 0.21182642877101898, 1.223870038986206], [-0.08004200458526611, 0.21784299612045288, 0.18186455965042114, -0.06749255210161209, 0.06391159445047379, 0.4003090560436249, -0.27265772223472595, -0.46372199058532715, -0.26530781388282776, -0.0794573426246643, -0.0935070738196373, 0.09812623262405396, 0.36640360951423645, -0.3108794093132019, -0.24344444274902344, -0.28762567043304443]], "1_weights": [[-1.8174033164978027, 0.7862335443496704, 0.30220016837120056, -0.22404013574123383, -0.5659629106521606, 0.0340314581990242, 0.5779547691345215, 0.23514173924922943, -0.21359966695308685, 0.5953149795532227, 1.0586217641830444, 0.4808698892593384, 0.346007764339447, 0.46135827898979187, -0.06871166825294495, -0.3527127802371979], [-0.6838780641555786, 0.8546963930130005, 0.4666164219379425, -0.8024777173995972, -0.4223324954509735, 0.1828501671552658, -0.0167815163731575, -0.031111130490899086, -0.6537559628486633, 0.20879508554935455, 0.5784055590629578, 0.5755726099014282, -2.6841914653778076, -11.084900856018066, -0.801719069480896, 0.9616084694862366], [0.45275822281837463, 0.006630532443523407, -0.07033175975084305, -0.1644301861524582, 0.21145424246788025, 0.30363729596138, -0.3772323429584503, 0.5625077486038208, 0.1853605955839157, 0.4192858934402466, 0.4352418780326843, 0.8502087593078613, -0.41320738196372986, -0.2806873321533203, -0.18004727363586426, 0.5102741122245789], [-0.554344654083252, 1.2758004665374756, -4.775694847106934, -0.5518900752067566, -0.3587539792060852, 0.19301240146160126, -0.16862064599990845, 1.2090903520584106, -1.4959503412246704, -0.36513903737068176, 1.7028429508209229, -0.5484230518341064, 0.2612511217594147, -0.21191444993019104, -0.30954745411872864, 0.9794782400131226], [-0.2786748707294464, 0.20659618079662323, 0.1628987342119217, -0.6520121693611145, 0.0851975679397583, -3.00736927986145, 0.01744053140282631, 0.35618144273757935, -0.5421250462532043, 0.799180805683136, 0.31021755933761597, 0.6078475117683411, -2.470104694366455, -1.1071836948394775, -0.3221914768218994, -0.2526317834854126], [0.39942753314971924, 0.6611390709877014, -0.017489353194832802, 0.017347639426589012, -0.22061242163181305, 0.3059394657611847, -0.06639829277992249, 0.7890979051589966, 0.4015871286392212, -0.17810915410518646, 0.5551998615264893, 0.7477102875709534, 0.31667327880859375, 0.3362085223197937, -0.11102179437875748, -0.31958407163619995], [-0.4687415063381195, 0.8909739255905151, -0.3533993363380432, 0.0805029422044754, -0.13526713848114014, -0.24346278607845306, -0.3177291452884674, 0.17323002219200134, -0.1398940533399582, -0.1511232852935791, 0.2315228432416916, 0.15136179327964783, 0.3122185170650482, 0.016204794868826866, 0.11400045454502106, -0.10225658118724823], [-0.889352560043335, 1.4486695528030396, -1.046502947807312, -0.6932291388511658, 0.4019782841205597, -0.9672317504882812, 2.084355115890503, 1.083115816116333, -0.5219686627388, 1.489675521850586, 1.3226263523101807, 0.8688725233078003, 1.4931658506393433, -3.7250266075134277, -1.0578008890151978, 1.018344759941101], [-2.6322410106658936, 0.7733080387115479, 1.0426095724105835, -0.9803565740585327, -0.26951974630355835, -1.0752944946289062, -0.4128270745277405, 1.0162546634674072, -0.6699978113174438, 0.9050611257553101, 0.5002558827400208, 0.42094525694847107, -0.835162878036499, 0.7535161375999451, -1.0044411420822144, 2.3723175525665283], [0.4302684962749481, -0.05209604650735855, -0.3724089562892914, 0.19062651693820953, -0.26966598629951477, -0.012219850905239582, 0.07258020341396332, -0.31698861718177795, -0.10186394304037094, 0.26998165249824524, 0.2114996612071991, 0.20332230627536774, -0.5070732235908508, 0.04926922917366028, 0.03169635683298111, 0.13358141481876373], [0.301956444978714, -0.823363721370697, 0.6433963179588318, 0.789182722568512, 0.580690860748291, 0.7982401251792908, 0.2722564935684204, -0.5673274397850037, 0.3419308662414551, -1.929372787475586, -0.21963585913181305, -0.5822905898094177, -0.12018275260925293, 0.32162126898765564, 0.7459462881088257, -0.2165622115135193], [0.19539502263069153, 0.572264552116394, -0.2154531627893448, -0.5406097769737244, 0.5584034323692322, -0.20071247220039368, -1.4712679386138916, 0.36500096321105957, -0.00756779033690691, 0.43225347995758057, 0.07216855138540268, 0.21184512972831726, 0.6508472561836243, -6.405709266662598, -0.058843206614255905, 0.736624002456665], [0.07813909649848938, 0.9626240730285645, -0.81596839427948, -1.2554059028625488, 0.17381393909454346, -5.860368251800537, -1.3761183023452759, 1.4270061254501343, 0.5340750813484192, 0.10470789670944214, 1.1325819492340088, 1.669697880744934, -0.8765004873275757, 1.683998942375183, -0.870071530342102, 2.6418120861053467], [0.21436752378940582, 0.03356289491057396, 0.2942987382411957, 0.6399329304695129, -0.624600887298584, 0.09133725613355637, -0.4419475793838501, 0.478895902633667, 0.6104711294174194, -0.027113089337944984, -0.7682994604110718, -0.1113613024353981, -0.14899305999279022, 0.14293445646762848, 0.7033875584602356, -0.29172253608703613], [-0.13740208745002747, -0.1889769434928894, 0.2963132858276367, 0.2756228744983673, -0.15419965982437134, 0.33524131774902344, 0.2438594102859497, 0.0033772175665944815, 0.43228936195373535, 0.27876290678977966, 0.17660853266716003, 0.025316767394542694, 0.23077216744422913, -0.38041952252388, 0.3798114061355591, -0.5916153788566589], [0.5159350633621216, -0.408113032579422, 0.4396415650844574, 0.9736916422843933, 0.1294262409210205, 0.675796389579773, -1.2874679565429688, -0.44979149103164673, 0.35917091369628906, 0.11873198300600052, -0.48581862449645996, -0.745413064956665, 0.9408634901046753, -0.9225590229034424, 0.5422382950782776, 0.021093811839818954]], "2_weights": [[-0.7143165469169617, -0.7315473556518555, -0.49908575415611267], [0.8986785411834717, 0.8494924902915955, 0.5964327454566956], [-1.0842764377593994, -1.2570310831069946, -0.9079322814941406], [-0.8870177268981934, -0.7695556879043579, -1.061667561531067], [0.9454454779624939, 1.809530258178711, 2.129709005355835], [-1.6558963060379028, -1.6195183992385864, -1.565916895866394], [-0.6774753928184509, 0.6533478498458862, 2.211139440536499], [0.41507306694984436, 0.42704689502716064, 0.6452081203460693], [-0.44479677081108093, -0.5534996390342712, 0.4628244936466217], [0.921813428401947, 1.2084012031555176, 1.5804153680801392], [0.7051384449005127, 0.3389195501804352, 0.7060462832450867], [0.1632026880979538, 0.8232901692390442, 0.9314925670623779], [-1.57152259349823, -1.5821434259414673, -1.5955735445022583], [-2.7703113555908203, -2.795769214630127, -2.7018990516662598], [-0.754211962223053, -0.6501257419586182, -0.6478605270385742], [1.814738154411316, 0.981878399848938, -0.11382780969142914]], "0_bias": [0.04227814823389053, 0.04398743435740471, -0.09980897605419159, -0.12179209291934967, -0.01828707382082939, -0.05285000428557396, 0.14874593913555145, -0.012893774546682835, -0.051708295941352844, -0.028583664447069168, -0.007803332060575485, 0.08178892731666565, -0.03107380121946335, 0.03615817055106163, 0.1009896844625473, 0.22157759964466095], "1_bias": [-0.03262102231383324, 0.14609158039093018, -0.0005772974691353738, 0.23177234828472137, -0.008759182877838612, 0.1196557879447937, 0.13852311670780182, 0.06697738170623779, -0.09157317876815796, 0.06481527537107468, 0.11179317533969879, -0.06943264603614807, 0.14067521691322327, -0.052579112350940704, 0.1317005753517151, -0.20964378118515015], "2_bias": [0.47410452365875244, -0.04194372519850731, -0.25486883521080017],"obj_num": 1}